
\data\
ngram 1=103
ngram 2=1256

\1-grams:
-1.389429	</s>
-99	<s>	-0.9078642
-1.648213	A	-0.6539166
-2.749853	AND	-0.2330854
-2.780452	APOSTROPHE	-0.2760053
-2.780452	APRIL	-0.2760053
-2.780452	AREA	-0.2760053
-2.780452	AUGUST	-0.2034303
-1.751967	B	-0.6172795
-1.751967	C	-0.4374623
-2.780452	CODE	-0.2760053
-1.732861	D	-0.4994655
-2.780452	DECEMBER	-0.2760053
-1.648213	E	-0.7110494
-1.577403	EIGHT	-0.6797142
-2.780452	EIGHTEEN	-0.2760053
-2.780452	EIGHTEENTH	-0.2760053
-2.780452	EIGHTH	-0.2760053
-2.048445	EIGHTY	-0.2920762
-2.749853	ELEVEN	-0.2760053
-2.780452	ELEVENTH	-0.2760053
-2.780452	ENTER	-0.4273106
-2.780452	ERASE	-0.2469564
-1.696999	F	-0.336528
-2.65355	FEBRUARY	-0.2760053
-2.472211	FIFTEEN	-0.2170074
-2.65355	FIFTEENTH	-0.2541004
-2.65355	FIFTH	-0.2760053
-1.862597	FIFTY	-0.3574138
-2.749853	FIRST	-0.1817046
-1.604358	FIVE	-0.8414889
-1.838101	FORTY	-0.2420424
-1.604358	FOUR	-0.7316064
-2.239595	FOURTEEN	-0.2109207
-2.780452	FOURTH	-0.2760053
-1.751967	G	-0.609163
-2.780452	GO	-0.7045833
-1.71456	H	-0.6343235
-2.780452	HALF	-0.2541004
-2.780452	HELP	-0.7837646
-2.239595	HUNDRED	-0.3580421
-1.71456	I	-0.6208957
-1.814914	J	-0.2959894
-2.780452	JANUARY	-0.2760053
-2.780452	JULY	-0.2760053
-2.780452	JUNE	-0.2760053
-1.71456	K	-0.3539228
-1.71456	L	-0.584012
-1.771952	M	-0.4388667
-2.780452	MARCH	-0.2760053
-2.65355	MAY	-0.2760053
-1.732861	N	-0.6175972
-1.648213	NINE	-0.5922788
-1.792902	NINETEEN	-0.6506242
-2.239595	NINETY	-0.2583938
-2.65355	NINTH	-0.2760053
-2.780452	NO	-0.9087033
-2.862877	NOVEMBER
-1.696999	O	-0.5869132
-2.780452	OCTOBER	-0.2760053
-2.65355	OF	-0.2760053
-2.048445	OH	-0.5195915
-1.604358	ONE	-0.8699782
-1.838101	P	-0.5469559
-1.838101	Q	-0.2399561
-1.71456	R	-0.7519568
-2.780452	REPEAT	-0.9350322
-2.780452	RUBOUT	-0.2563811
-1.71456	S	-0.6290677
-2.780452	SECOND	-0.2541004
-2.65355	SEPTEMBER	-0.2760053
-1.590672	SEVEN	-0.5910881
-2.472211	SEVENTEEN	-0.2583938
-2.780452	SEVENTH	-0.2760053
-1.888557	SEVENTY	-0.3557679
-1.648213	SIX	-0.7567711
-2.749853	SIXTEEN	-0.2612799
-2.780452	SIXTEENTH	-0.2760053
-2.780452	SIXTH	-0.2760053
-1.680121	SIXTY	-0.5504184
-2.780452	START	-0.745976
-2.780452	STOP	-0.9087033
-1.696999	T	-0.7687012
-2.239595	TEN	-0.3916333
-2.65355	THIRD	-0.1817046
-2.862877	THIRTEEN
-2.749853	THIRTIETH	-0.1817046
-1.771952	THIRTY	-0.3721167
-2.380133	THOUSAND	-0.2661331
-1.663874	THREE	-0.5978194
-2.65355	TWELFTH	-0.2541004
-2.589213	TWELVE	-0.2710412
-2.780452	TWENTIETH	-0.2760053
-1.680121	TWENTY	-0.3076605
-1.564528	TWO	-0.9299974
-1.771952	U	-0.5498062
-1.838101	V	-0.5101971
-1.771952	W	-0.3846448
-1.838101	X	-0.2676609
-1.71456	Y	-0.4023821
-2.780452	YES	-1.026803
-1.732861	Z	-0.24998
-1.97729	ZERO	-0.5207022

\2-grams:
-1.782006	<s> A
-3.154214	<s> APRIL
-3.154214	<s> AREA
-2.630457	<s> AUGUST
-1.528094	<s> B
-1.7438	<s> C
-1.890669	<s> D
-3.154214	<s> DECEMBER
-1.782006	<s> E
-2.016482	<s> EIGHT
-3.154214	<s> EIGHTEEN
-2.937641	<s> ELEVEN
-1.061831	<s> ENTER
-1.482376	<s> ERASE
-1.78984	<s> F
-3.113132	<s> FEBRUARY
-2.094061	<s> FIFTY
-1.747886	<s> FIVE
-2.639971	<s> FORTY
-1.472469	<s> FOUR
-2.917846	<s> FOURTEEN
-1.797817	<s> G
-2.061937	<s> GO
-1.739086	<s> H
-1.967358	<s> HELP
-2.344643	<s> I
-1.702176	<s> J
-2.943306	<s> JANUARY
-2.890451	<s> JULY
-2.943306	<s> JUNE
-2.058405	<s> K
-1.887358	<s> L
-1.499583	<s> M
-2.890451	<s> MARCH
-2.917572	<s> MAY
-1.856438	<s> N
-2.153309	<s> NINE
-3.113132	<s> NINTH
-1.823909	<s> NO
-2.004585	<s> O
-2.890451	<s> OCTOBER
-2.659996	<s> OH
-1.013302	<s> ONE
-1.186332	<s> P
-2.56394	<s> Q
-1.853377	<s> R
-1.794394	<s> REPEAT
-1.219261	<s> RUBOUT
-1.49555	<s> S
-2.617744	<s> SEPTEMBER
-1.896411	<s> SEVEN
-1.66167	<s> SIX
-2.453849	<s> SIXTY
-2.012078	<s> START
-1.823909	<s> STOP
-1.884072	<s> T
-2.408518	<s> TEN
-2.37397	<s> THIRTY
-1.757563	<s> THREE
-2.340572	<s> TWELVE
-2.511662	<s> TWENTY
-1.575058	<s> TWO
-2.519324	<s> U
-1.907613	<s> V
-1.976497	<s> W
-2.302202	<s> X
-2.459993	<s> Y
-1.693055	<s> YES
-2.3542	<s> Z
-1.14827	A </s>
-1.834653	A A
-2.089055	A B
-1.286771	A C
-1.373437	A D
-2.005614	A E
-2.061684	A F
-1.867304	A G
-1.856146	A H
-2.338536	A HALF
-2.037868	A I
-2.248928	A J
-2.037868	A K
-1.210801	A L
-1.249846	A M
-0.9440476	A N
-2.453753	A NINETY
-2.091239	A P
-0.7209782	A R
-1.371628	A S
-2.005614	A SIX
-1.369827	A T
-2.081606	A TWO
-2.098576	A U
-1.292751	A V
-2.063734	A W
-2.262754	A X
-1.728418	A Y
-2.197645	A Z
-0.9070024	AND A
-0.8747136	AND EIGHTY
-1.175123	AND FIFTY
-1.148711	AND SIXTY
-1.148711	AND TWENTY
-0.31825	APOSTROPHE H
-0.3267162	APRIL THIRTIETH
-0.3267753	AREA CODE
-0.9258291	AUGUST SIXTEENTH
-0.5694473	AUGUST TWENTY
-1.321855	B A
-2.084829	B B
-2.074798	B D
-1.090057	B E
-1.98549	B EIGHT
-2.001942	B FIVE
-1.960631	B FORTY
-2.084829	B G
-2.064994	B H
-2.064994	B I
-1.953074	B J
-2.064994	B K
-2.064994	B L
-1.896189	B M
-1.518906	B O
-2.001942	B ONE
-2.127441	B P
-1.094184	B R
-1.876907	B S
-1.865201	B SEVEN
-1.976152	B SEVENTY
-2.027852	B SIX
-0.3721582	B U
-2.127441	B V
-2.095096	B W
-1.916367	B X
-2.064994	B Y
-2.074798	B Z
-1.57334	C </s>
-1.123674	C A
-1.738099	C B
-1.894958	C C
-1.885154	C D
-1.123674	C E
-1.866187	C F
-1.679983	C FIVE
-0.7429881	C H
-1.875567	C I
-1.92577	C J
-0.9968741	C K
-1.683561	C L
-1.904987	C M
-1.214577	C O
-1.875567	C R
-1.875567	C S
-1.805653	C SEVEN
-1.866187	C T
-1.745063	C THIRTY
-1.789802	C TWO
-1.904987	C U
-1.936546	C V
-1.745063	C W
-1.724495	C Y
-1.689698	C Z
-0.3155905	CODE FOUR
-0.6181769	D </s>
-1.01556	D A
-1.842361	D B
-1.795547	D D
-1.245066	D E
-1.820095	D F
-2.033698	D FORTY
-1.967949	D H
-1.827391	D I
-2.022025	D J
-1.788763	D K
-1.967949	D L
-1.850043	D M
-1.978239	D N
-1.11963	D O
-2.125586	D OH
-1.778721	D ONE
-2.033698	D P
-1.873943	D Q
-1.121075	D R
-1.827391	D S
-1.759425	D TWO
-1.99958	D U
-2.033698	D V
-1.452101	D W
-1.788763	D Y
-1.978239	D Z
-0.3267753	DECEMBER EIGHTEENTH
-0.7834008	E </s>
-1.188984	E A
-2.154831	E B
-2.154831	E C
-1.623757	E D
-1.436469	E E
-2.060247	E EIGHT
-2.095437	E F
-2.047867	E FOUR
-1.936342	E G
-2.248564	E H
-1.924877	E I
-2.184652	E J
-2.248564	E K
-1.074804	E L
-1.94219	E M
-0.9996226	E N
-2.236804	E O
-1.721445	E P
-2.326718	E Q
-0.9196545	E R
-1.495275	E S
-2.356242	E SEVENTY
-1.551178	E T
-2.285886	E THIRTY
-2.109272	E THREE
-2.143228	E TWO
-2.130316	E U
-1.508085	E V
-1.224633	E W
-2.326718	E X
-1.7007	E Y
-2.145329	E Z
-0.4828602	EIGHT </s>
-1.496977	EIGHT EIGHT
-1.239166	EIGHT FIVE
-2.214007	EIGHT FORTY
-1.044147	EIGHT FOUR
-2.368727	EIGHT FOURTEEN
-2.101933	EIGHT HUNDRED
-1.611269	EIGHT NINE
-1.550033	EIGHT OH
-1.419683	EIGHT ONE
-1.349216	EIGHT SEVEN
-2.070971	EIGHT SEVENTY
-1.508479	EIGHT SIX
-1.955827	EIGHT SIXTY
-2.179885	EIGHT THIRTY
-2.403908	EIGHT THOUSAND
-1.154526	EIGHT THREE
-1.993238	EIGHT TWENTY
-1.287199	EIGHT TWO
-1.811278	EIGHT ZERO
-0.3265007	EIGHTEEN FEBRUARY
-0.3197771	EIGHTEENTH NINETEEN
-0.3197771	EIGHTH NINETEEN
-1.348121	EIGHTY EIGHT
-1.488256	EIGHTY FIFTH
-1.356062	EIGHTY FIVE
-1.356062	EIGHTY FOUR
-1.09771	EIGHTY NINE
-1.356062	EIGHTY ONE
-1.352073	EIGHTY SEVEN
-0.671241	EIGHTY SIX
-1.372391	EIGHTY THREE
-0.8563879	ELEVEN </s>
-0.8877565	ELEVEN NINE
-0.9230999	ELEVEN SEVENTEEN
-0.8905943	ELEVEN SIXTY
-0.3197771	ELEVENTH NINETEEN
-1.088169	ENTER EIGHT
-2.048509	ENTER EIGHTY
-2.163699	ENTER FIFTEEN
-1.385633	ENTER FIFTY
-1.24244	ENTER FIVE
-1.753554	ENTER FORTY
-1.24244	ENTER FOUR
-2.110554	ENTER FOURTEEN
-1.487862	ENTER NINE
-1.842731	ENTER NINETY
-1.476097	ENTER ONE
-1.030428	ENTER SEVEN
-1.538391	ENTER SEVENTY
-1.096161	ENTER SIX
-1.099399	ENTER SIXTY
-1.732105	ENTER THIRTY
-1.729265	ENTER THREE
-1.872641	ENTER TWENTY
-1.235716	ENTER TWO
-2.020522	ENTER ZERO
-1.568912	ERASE A
-1.614793	ERASE B
-1.433329	ERASE C
-1.402578	ERASE E
-1.591247	ERASE F
-1.433329	ERASE G
-1.422835	ERASE I
-1.449561	ERASE J
-1.598955	ERASE K
-1.622935	ERASE M
-1.606802	ERASE N
-1.372033	ERASE O
-1.455109	ERASE Q
-1.598955	ERASE R
-1.422835	ERASE S
-1.591247	ERASE T
-1.405578	ERASE V
-1.438672	ERASE W
-1.648317	ERASE X
-1.598955	ERASE Y
-1.606802	ERASE Z
-1.584508	F </s>
-1.754644	F A
-1.661832	F B
-1.80246	F D
-0.9869081	F E
-1.711575	F EIGHT
-1.601421	F F
-1.600549	F FIVE
-1.812689	F G
-1.647446	F H
-1.06445	F I
-1.684344	F J
-1.647446	F K
-1.669207	F M
-1.253319	F O
-1.856199	F Q
-1.256183	F R
-1.792466	F S
-1.754644	F SIX
-1.393388	F T
-1.823164	F THIRTY
-1.773144	F TWENTY
-1.547624	F TWO
-1.856199	F V
-1.421894	F X
-1.647446	F Y
-1.80246	F Z
-0.6269968	FEBRUARY EIGHTH
-0.6131368	FEBRUARY NINETEEN
-0.6384872	FIFTEEN </s>
-0.9836227	FIFTEEN NINETEEN
-0.9716672	FIFTEEN SIXTY
-0.3449411	FIFTEENTH NINETEEN
-0.6131368	FIFTH NINETEEN
-0.6101412	FIFTH S
-1.378248	FIFTY </s>
-0.9192954	FIFTY EIGHT
-1.182644	FIFTY FIVE
-1.412948	FIFTY FOUR
-1.646214	FIFTY NINE
-0.9218246	FIFTY ONE
-1.453302	FIFTY SEVEN
-0.9256461	FIFTY SIX
-1.659873	FIFTY SIXTY
-1.475415	FIFTY THREE
-1.175762	FIFTY TWO
-0.4528448	FIRST NINETEEN
-0.6221905	FIVE </s>
-1.624506	FIVE EIGHT
-1.628722	FIVE FIVE
-2.354607	FIVE FORTY
-1.628722	FIVE FOUR
-2.282724	FIVE HUNDRED
-2.322049	FIVE M
-1.551019	FIVE NINE
-1.50698	FIVE OH
-1.167071	FIVE ONE
-1.626609	FIVE SEVEN
-1.551019	FIVE SIX
-2.587594	FIVE SIXTEEN
-2.28212	FIVE T
-2.500571	FIVE TEN
-2.166158	FIVE THIRTY
-1.421314	FIVE THREE
-2.272686	FIVE TWENTY
-0.4804527	FIVE TWO
-1.782609	FIVE ZERO
-1.274552	FORTY EIGHT
-1.049303	FORTY FIVE
-1.28207	FORTY FOUR
-1.293596	FORTY NINE
-1.327408	FORTY ONE
-1.04709	FORTY SEVEN
-1.518629	FORTY SIX
-1.058269	FORTY THREE
-1.270841	FORTY TWO
-0.5274204	FOUR </s>
-2.499844	FOUR AND
-1.385016	FOUR EIGHT
-2.103347	FOUR FIFTY
-1.457314	FOUR FIVE
-2.095284	FOUR FORTY
-1.080495	FOUR FOUR
-1.785863	FOUR NINE
-2.408718	FOUR NINETY
-1.586524	FOUR OH
-0.9022216	FOUR ONE
-1.327121	FOUR SEVEN
-2.281388	FOUR SEVENTY
-1.39287	FOUR SIX
-2.035661	FOUR SIXTY
-2.224036	FOUR THIRTY
-2.157892	FOUR THOUSAND
-1.652675	FOUR THREE
-2.035661	FOUR TWENTY
-1.04794	FOUR TWO
-2.319828	FOUR ZERO
-0.8567867	FOURTEEN </s>
-1.179853	FOURTEEN A
-1.238344	FOURTEEN EIGHTY
-1.253333	FOURTEEN FOURTEEN
-0.8968241	FOURTEEN SIXTY
-0.3197771	FOURTH NINETEEN
-1.722357	G </s>
-1.176385	G A
-2.073464	G B
-1.918754	G C
-1.911758	G D
-1.878372	G E
-2.201364	G EIGHTY
-2.115743	G FORTY
-0.3567928	G H
-1.243039	G I
-1.940447	G J
-1.904872	G K
-1.181521	G L
-1.654346	G N
-1.878372	G NINE
-2.044254	G O
-2.115743	G P
-2.115743	G Q
-1.904872	G R
-2.053774	G S
-2.138534	G SEVENTY
-2.044254	G T
-1.841428	G TWO
-2.083654	G U
-1.947925	G V
-1.925866	G W
-0.09118164	GO </s>
-0.4396342	H </s>
-0.8290071	H A
-1.747416	H B
-1.335278	H E
-1.934026	H F
-2.19488	H FIFTY
-2.047135	H FOUR
-1.994168	H G
-2.114755	H H
-1.496701	H I
-1.978613	H K
-1.978613	H L
-1.742953	H N
-2.074836	H NINE
-1.098717	H O
-2.047135	H ONE
-2.182488	H P
-2.182488	H Q
-1.940975	H R
-2.03828	H SEVEN
-2.207636	H SEVENTY
-2.074836	H SIX
-1.934026	H T
-2.084477	H THREE
-2.021095	H TWO
-2.00216	H U
-2.147302	H W
-2.182488	H X
-1.940975	H Y
-2.125335	H Z
-0.3319252	HALF </s>
-0.07459252	HELP </s>
-1.037581	HUNDRED </s>
-0.4733329	HUNDRED AND
-1.109323	HUNDRED EIGHTY
-1.341406	HUNDRED FORTY
-1.315567	HUNDRED TWENTY
-1.551254	I </s>
-1.753053	I A
-1.980716	I B
-1.112829	I C
-1.642716	I D
-1.319109	I E
-1.767349	I F
-2.436804	I FIFTEEN
-1.946071	I FIVE
-2.055335	I FOUR
-1.782131	I G
-2.000523	I K
-1.273603	I L
-1.787172	I M
-0.9217769	I N
-2.115764	I O
-2.013602	I P
-2.013602	I Q
-1.965162	I R
-1.537347	I S
-2.10509	I SIXTY
-0.5288928	I T
-2.161293	I THIRTY
-2.161293	I U
-1.554809	I V
-2.126707	I Y
-1.484929	J A
-1.726921	J B
-1.562083	J C
-1.717693	J D
-1.128392	J E
-1.650179	J FIVE
-1.508146	J FOUR
-1.726921	J G
-1.549505	J H
-1.755843	J J
-1.549505	J K
-1.708657	J L
-1.736349	J M
-1.717693	J N
-0.9398142	J O
-1.508146	J ONE
-1.588388	J Q
-1.708657	J S
-1.464069	J SEVEN
-1.699805	J T
-1.568511	J U
-1.588388	J V
-1.736349	J W
-1.765928	J X
-1.555748	J Z
-0.6264488	JANUARY FIFTEENTH
-0.6264488	JANUARY TWELFTH
-0.8021044	JULY THIRTIETH
-0.8014609	JULY TWELFTH
-0.7750941	JULY TWENTY
-0.6269968	JUNE ELEVENTH
-0.608651	JUNE TWENTY
-0.8326961	K </s>
-1.274292	K A
-1.836974	K C
-1.826583	K D
-1.017583	K E
-1.73442	K EIGHT
-1.971485	K EIGHTY
-1.66657	K F
-1.673732	K H
-1.426206	K I
-1.711427	K J
-1.816435	K K
-1.673732	K L
-1.847619	K M
-1.778061	K NINE
-2.032974	K NINETY
-1.806519	K O
-1.816435	K R
-1.673732	K S
-1.645768	K SIX
-1.628078	K T
-1.787341	K THREE
-1.796824	K TWENTY
-1.606932	K TWO
-1.695954	K U
-1.881216	K V
-1.438634	K W
-1.719375	K X
-1.673732	K Y
-1.681014	K Z
-1.045989	L </s>
-1.03445	L A
-2.097064	L C
-1.203706	L D
-0.7142324	L E
-1.988025	L EIGHT
-1.899116	L F
-2.157409	L FIFTY
-1.921093	L G
-2.075093	L H
-1.112633	L I
-1.906319	L K
-0.9196583	L L
-1.967414	L M
-2.08594	L N
-2.034229	L NINE
-1.568582	L O
-1.906319	L R
-1.906319	L S
-2.170553	L SEVENTY
-2.064511	L T
-2.108481	L THIRTY
-2.04409	L THREE
-1.979347	L TWO
-1.928673	L U
-1.571932	L Y
-1.951008	L Z
-2.212557	L ZERO
-1.578828	M </s>
-0.6537353	M A
-1.785211	M B
-1.930742	M C
-1.920141	M D
-1.11983	M E
-1.826317	M EIGHT
-1.899684	M F
-1.988017	M FIFTY
-1.975942	M FORTY
-1.84353	M FOUR
-1.930742	M G
-1.770124	M H
-1.281862	M I
-1.808872	M J
-1.909792	M K
-1.752545	M M
-1.738534	M N
-0.9636673	M O
-1.552139	M P
-1.975942	M Q
-1.770124	M S
-1.834838	M SEVEN
-1.899684	M T
-1.941609	M THIRTY
-1.81796	M TWO
-1.752545	M U
-1.817054	M V
-1.975942	M X
-1.770124	M Y
-0.8014609	MARCH THIRD
-0.802281	MARCH TWENTIETH
-0.7750941	MARCH TWENTY
-0.7816908	MAY NINETEEN
-0.8014609	MAY NINTH
-0.7750941	MAY TWENTY
-0.6467337	N </s>
-1.225714	N A
-1.785158	N B
-1.649986	N C
-1.151908	N D
-0.9455379	N E
-2.115621	N F
-2.05478	N FOUR
-1.394135	N G
-2.001789	N H
-1.23136	N I
-2.186395	N J
-2.126644	N K
-2.001789	N L
-2.1615	N M
-1.332247	N N
-1.770163	N O
-2.015756	N P
-2.001789	N R
-1.642598	N S
-2.226637	N SEVENTY
-2.084136	N SIX
-1.328677	N T
-2.094379	N THREE
-1.653727	N U
-2.055192	N X
-1.966737	N Y
-1.974532	N Z
-0.3624252	NINE </s>
-2.328626	NINE AND
-1.795712	NINE EIGHT
-2.185461	NINE EIGHTY
-1.9397	NINE FIFTY
-1.287055	NINE FIVE
-2.099664	NINE FORTY
-1.608923	NINE FOUR
-2.243359	NINE HUNDRED
-1.619838	NINE NINE
-2.077971	NINE NINETEEN
-2.318298	NINE OF
-2.185461	NINE OH
-1.473441	NINE ONE
-1.801272	NINE SEVEN
-2.122498	NINE SEVENTY
-1.10762	NINE SIX
-2.018723	NINE SIXTY
-1.909961	NINE THIRTY
-1.48409	NINE THREE
-1.875441	NINE TWENTY
-1.465621	NINE TWO
-2.159171	NINE ZERO
-1.486822	NINETEEN FIFTY
-1.484457	NINETEEN FORTY
-1.430873	NINETEEN SEVENTY
-0.1725066	NINETEEN SIXTY
-1.69149	NINETEEN TWENTY
-0.9863895	NINETY EIGHT
-0.9901021	NINETY FIVE
-0.9901021	NINETY FOUR
-1.216447	NINETY ONE
-1.213319	NINETY SEVEN
-0.9957312	NINETY SIX
-0.6264488	NINTH OF
-0.608651	NINTH SIXTY
-0.05470935	NO </s>
-1.527101	O </s>
-1.424495	O A
-2.467752	O APOSTROPHE
-1.624655	O B
-2.121505	O C
-1.307548	O D
-2.055705	O E
-2.007591	O EIGHT
-1.932086	O F
-2.026202	O FIVE
-2.171656	O FORTY
-2.026202	O FOUR
-2.121505	O G
-1.749197	O H
-2.158565	O J
-1.974621	O K
-1.365199	O L
-1.524974	O M
-0.770809	O N
-2.349896	O NINETY
-1.125032	O O
-2.028486	O P
-2.171656	O Q
-0.9478742	O R
-1.617176	O S
-2.07655	O SIXTY
-1.513144	O T
-1.998576	O TWO
-1.258281	O U
-1.311198	O W
-2.171656	O X
-1.974621	O Y
-2.109822	O Z
-0.8021044	OCTOBER FIRST
-0.8021044	OCTOBER THIRTIETH
-0.7750941	OCTOBER TWENTY
-0.6264488	OF SEPTEMBER
-0.608651	OF SIXTY
-1.069731	OH </s>
-0.9054845	OH EIGHT
-1.181376	OH FIVE
-1.6501	OH FOUR
-1.66434	OH NINE
-1.808475	OH OH
-1.289311	OH ONE
-1.021881	OH SEVEN
-0.8178855	OH SIX
-1.297527	OH THREE
-1.019688	OH TWO
-0.6993178	ONE </s>
-1.539977	ONE EIGHT
-2.714025	ONE ELEVEN
-2.668234	ONE FIFTEEN
-2.039162	ONE FIFTY
-0.58097	ONE FIVE
-2.437663	ONE FORTY
-1.543224	ONE FOUR
-2.401905	ONE HUNDRED
-2.425069	ONE J
-1.449783	ONE NINE
-2.607498	ONE NINETY
-1.351987	ONE OH
-1.668922	ONE ONE
-1.165562	ONE SEVEN
-2.307126	ONE SEVENTY
-1.6755	ONE SIX
-2.714025	ONE SIXTEEN
-1.995491	ONE SIXTY
-2.401905	ONE TEN
-2.262223	ONE THIRTY
-2.426103	ONE THOUSAND
-1.335518	ONE THREE
-2.221532	ONE TWENTY
-1.045274	ONE TWO
-1.909911	ONE ZERO
-1.574515	P A
-2.011987	P B
-2.011987	P C
-1.850499	P D
-1.817043	P E
-1.913162	P EIGHT
-1.98273	P F
-2.054341	P FORTY
-1.929537	P FOUR
-1.815844	P G
-1.339769	P H
-0.3412894	P I
-1.446929	P L
-1.850499	P N
-2.198036	P NINETY
-1.337629	P O
-1.803186	P R
-1.589508	P S
-2.247164	P SEVENTEEN
-1.796992	P T
-1.964266	P THREE
-1.822314	P U
-1.992265	P Y
-1.587274	Q C
-1.348379	Q D
-1.371954	Q E
-1.564786	Q F
-1.426823	Q FIFTY
-1.523029	Q FIVE
-1.587274	Q G
-1.572153	Q I
-1.391114	Q K
-1.348379	Q N
-1.523029	Q ONE
-1.619192	Q P
-1.371158	Q Q
-1.543406	Q SIX
-1.386244	Q T
-1.503566	Q TWO
-1.595036	Q U
-1.595036	Q W
-1.572153	Q Y
-1.579648	Q Z
-1.321525	R </s>
-1.27228	R A
-1.913013	R B
-2.148349	R C
-1.458669	R D
-0.9882207	R E
-2.123248	R F
-0.6430869	R G
-2.257676	R H
-1.098193	R I
-1.357638	R K
-1.456913	R L
-1.671067	R N
-1.051227	R O
-2.186318	R ONE
-2.329827	R Q
-1.585822	R R
-1.903107	R S
-2.177017	R SEVEN
-2.236064	R SIXTY
-1.58347	R T
-2.292255	R THIRTY
-2.157049	R U
-2.184247	R V
-2.157049	R W
-1.516602	R Y
-2.13982	R Z
-0.05129313	REPEAT </s>
-1.689759	RUBOUT A
-1.565525	RUBOUT C
-1.739387	RUBOUT D
-1.561113	RUBOUT E
-1.342305	RUBOUT F
-1.605117	RUBOUT G
-1.551657	RUBOUT H
-1.589948	RUBOUT I
-1.587195	RUBOUT J
-1.728997	RUBOUT L
-1.572629	RUBOUT M
-1.210888	RUBOUT N
-1.342305	RUBOUT O
-1.637143	RUBOUT P
-1.637143	RUBOUT Q
-1.551657	RUBOUT R
-1.728997	RUBOUT S
-1.544886	RUBOUT T
-1.217161	RUBOUT U
-1.637143	RUBOUT V
-1.612905	RUBOUT W
-1.795425	RUBOUT X
-1.728997	RUBOUT Y
-1.558536	RUBOUT Z
-0.9622115	S </s>
-1.95281	S A
-0.5195013	S B
-2.138249	S C
-1.344994	S E
-1.975239	S F
-1.609586	S H
-2.116468	S I
-2.173116	S J
-1.505943	S K
-1.982981	S L
-1.968012	S M
-2.127222	S N
-1.148038	S O
-1.931481	S ONE
-1.62989	S P
-1.945944	S S
-2.038861	S SEVEN
-0.9820166	S T
-2.149563	S THIRTY
-1.968012	S U
-1.991263	S V
-1.759779	S W
-2.185389	S X
-1.990863	S Z
-2.25257	S ZERO
-0.3449411	SECOND NINETEEN
-1.021159	SEPTEMBER FIFTEENTH
-1.022227	SEPTEMBER FIRST
-0.9888466	SEPTEMBER NINETEEN
-1.02252	SEPTEMBER SIXTH
-0.9782666	SEPTEMBER TWENTY
-0.3323753	SEVEN </s>
-1.310496	SEVEN EIGHT
-2.381587	SEVEN FIFTEEN
-2.167027	SEVEN FIFTY
-1.56012	SEVEN FIVE
-1.962776	SEVEN FORTY
-1.687364	SEVEN FOUR
-2.115103	SEVEN FOURTEEN
-2.321855	SEVEN HUNDRED
-2.413589	SEVEN MAY
-1.469604	SEVEN NINE
-1.516484	SEVEN OH
-1.56012	SEVEN ONE
-1.861608	SEVEN SEVEN
-2.381587	SEVEN SEVENTEEN
-2.18025	SEVEN SEVENTY
-1.700508	SEVEN SIX
-1.902118	SEVEN SIXTY
-2.115103	SEVEN TEN
-1.977584	SEVEN THIRTY
-2.36075	SEVEN THOUSAND
-1.70498	SEVEN THREE
-1.902118	SEVEN TWENTY
-1.454197	SEVEN TWO
-2.005497	SEVEN ZERO
-0.6996722	SEVENTEEN </s>
-0.7334257	SEVENTEEN FIFTY
-0.9855059	SEVENTEEN THIRTY
-0.3197771	SEVENTH NINETEEN
-0.8717526	SEVENTY </s>
-1.52646	SEVENTY EIGHT
-1.536828	SEVENTY FIVE
-1.306641	SEVENTY NINE
-0.6148968	SEVENTY ONE
-1.294462	SEVENTY SEVEN
-1.552859	SEVENTY SIX
-1.046118	SEVENTY TWO
-0.4651313	SIX </s>
-0.8385328	SIX EIGHT
-2.353212	SIX EIGHTY
-1.539092	SIX FIVE
-2.266829	SIX FORTY
-1.226298	SIX FOUR
-2.411577	SIX HUNDRED
-1.545422	SIX NINE
-1.583146	SIX OH
-1.386203	SIX ONE
-1.537002	SIX SEVEN
-2.461154	SIX SEVENTEEN
-1.276768	SIX SIX
-2.497657	SIX SIXTEEN
-2.042939	SIX SIXTY
-2.077708	SIX THIRTY
-2.443991	SIX THOUSAND
-1.331281	SIX THREE
-2.479022	SIX TWELVE
-2.185432	SIX TWENTY
-1.450795	SIX TWO
-2.32673	SIX ZERO
-0.7832125	SIXTEEN FORTY
-0.5132297	SIXTEEN SIXTY
-0.3197771	SIXTEENTH NINETEEN
-0.3197771	SIXTH NINETEEN
-1.08998	SIXTY </s>
-1.305625	SIXTY EIGHT
-1.98313	SIXTY FIFTY
-1.309579	SIXTY FIVE
-1.201251	SIXTY FOUR
-0.7610689	SIXTY NINE
-1.042431	SIXTY ONE
-0.8775124	SIXTY SEVEN
-1.686658	SIXTY SIX
-1.119721	SIXTY THREE
-1.303662	SIXTY TWO
-0.08205457	START </s>
-0.05470935	STOP </s>
-1.124742	T </s>
-2.089941	T A
-2.275845	T B
-2.089911	T D
-0.9955021	T E
-2.419445	T EIGHTY
-2.112238	T F
-2.335315	T FIFTY
-2.185815	T FOUR
-2.097216	T G
-1.117893	T H
-1.745347	T I
-2.310542	T J
-2.119932	T K
-2.082726	T L
-2.143869	T M
-2.264869	T N
-1.638947	T O
-2.322752	T P
-2.169202	T Q
-1.745347	T R
-0.6635333	T S
-2.348253	T SEVENTY
-2.233514	T SIXTY
-0.5836452	T T
-2.322752	T V
-2.287105	T W
-1.88658	T Z
-0.4253522	TEN </s>
-1.359631	TEN ONE
-1.410702	TEN SEVENTY
-1.375996	TEN SIXTY
-1.4445	TEN TEN
-1.393003	TEN THIRTY
-1.460409	TEN TWELVE
-1.375996	TEN TWENTY
-0.4528448	THIRD NINETEEN
-0.4528448	THIRTIETH NINETEEN
-0.9839517	THIRTY </s>
-1.392139	THIRTY EIGHT
-0.9010928	THIRTY FIVE
-1.457751	THIRTY NINE
-0.7382162	THIRTY ONE
-1.441224	THIRTY SEVEN
-1.457751	THIRTY SIX
-1.651596	THIRTY SIXTY
-1.461983	THIRTY THREE
-1.158345	THIRTY TWO
-0.9188901	THOUSAND </s>
-0.9478105	THOUSAND EIGHT
-1.182205	THOUSAND FIVE
-1.190841	THOUSAND NINE
-1.182205	THOUSAND ONE
-1.179364	THOUSAND SEVEN
-1.193758	THOUSAND THREE
-0.4765145	THREE </s>
-1.432405	THREE EIGHT
-2.236986	THREE EIGHTY
-2.399518	THREE ELEVEN
-1.355905	THREE FIVE
-1.986074	THREE FORTY
-1.437156	THREE FOUR
-2.301857	THREE FOURTEEN
-2.301857	THREE HUNDRED
-1.679735	THREE NINE
-1.601929	THREE OH
-1.437156	THREE ONE
-1.534193	THREE SEVEN
-2.357784	THREE SEVENTEEN
-2.00332	THREE SEVENTY
-1.444382	THREE SIX
-1.688167	THREE SIXTY
-2.107658	THREE THIRTY
-1.294308	THREE THREE
-2.37815	THREE TWELVE
-1.88656	THREE TWENTY
-1.046816	THREE TWO
-1.747371	THREE ZERO
-0.3449411	TWELFTH NINETEEN
-1.130098	TWELVE </s>
-1.224669	TWELVE FIFTY
-1.183207	TWELVE FOUR
-1.191764	TWELVE NINE
-1.215445	TWELVE NINETEEN
-1.197565	TWELVE SIXTY
-1.256913	TWELVE TEN
-0.9601023	TWELVE TWENTY
-0.3197771	TWENTIETH NINETEEN
-1.368538	TWENTY </s>
-1.042817	TWENTY EIGHT
-1.880959	TWENTY FIFTH
-1.888199	TWENTY FIRST
-1.614292	TWENTY FIVE
-1.414029	TWENTY FOUR
-1.890204	TWENTY FOURTH
-1.20059	TWENTY NINE
-1.45642	TWENTY ONE
-1.628352	TWENTY SECOND
-1.451577	TWENTY SEVEN
-1.890204	TWENTY SEVENTH
-1.052316	TWENTY SIX
-1.623269	TWENTY THIRD
-1.054241	TWENTY THREE
-1.44205	TWENTY TWO
-0.6560029	TWO </s>
-1.386317	TWO EIGHT
-2.547831	TWO EIGHTY
-2.662004	TWO FIFTEEN
-2.46932	TWO FIFTY
-1.3883	TWO FIVE
-1.196371	TWO FOUR
-2.609361	TWO FOURTEEN
-2.609361	TWO HUNDRED
-1.594045	TWO NINE
-1.452975	TWO OH
-0.7422031	TWO ONE
-1.429416	TWO SEVEN
-1.065139	TWO SIX
-2.37308	TWO SIXTY
-2.609361	TWO TEN
-2.231251	TWO THIRTY
-2.643738	TWO THOUSAND
-1.392291	TWO THREE
-2.235848	TWO TWENTY
-0.9764496	TWO TWO
-1.782864	TWO ZERO
-1.798671	U </s>
-1.83512	U A
-2.027465	U B
-2.027465	U C
-2.017201	U D
-1.460725	U E
-2.160035	U EIGHTY
-1.855605	U F
-1.815558	U FIVE
-1.779951	U FOUR
-1.836323	U G
-2.007174	U I
-1.899723	U J
-2.007174	U K
-1.823149	U L
-1.843064	U M
-1.829686	U N
-1.997373	U O
-1.942805	U ONE
-2.071133	U Q
-0.3083335	U R
-1.365889	U S
-1.934341	U SEVEN
-1.609126	U T
-1.978412	U THREE
-1.917893	U TWO
-2.071133	U X
-2.007174	U Y
-0.9328547	V A
-1.892207	V C
-0.4743463	V E
-1.8679	V F
-1.936008	V FIFTY
-1.073214	V I
-1.703292	V K
-1.875852	V L
-1.719783	V M
-1.883952	V N
-1.844883	V NINE
-1.8679	V O
-1.926887	V P
-1.736924	V Q
-1.875852	V R
-1.875852	V S
-1.662154	V SEVEN
-1.900621	V THIRTY
-1.900621	V W
-1.926887	V X
-1.657848	V Y
-1.883952	V Z
-1.062356	W </s>
-0.9712244	W A
-1.707631	W B
-1.859063	W C
-1.848875	W D
-1.427061	W E
-1.634191	W EIGHT
-1.68634	W F
-1.774975	W FIVE
-2.050216	W FOURTEEN
-1.859063	W G
-1.693322	W H
-1.109249	W I
-1.653579	W L
-1.304056	W N
-0.9752469	W O
-1.90239	W P
-1.90239	W Q
-1.83892	W R
-1.829188	W T
-1.81967	W TWENTY
-1.628091	W TWO
-1.869497	W W
-1.90239	W X
-1.653579	W Y
-1.66005	W Z
-1.615175	X B
-1.428966	X C
-1.571288	X E
-1.537826	X EIGHT
-1.592677	X F
-1.550903	X FIVE
-1.550903	X FOUR
-1.615175	X G
-1.600048	X H
-1.600048	X I
-1.600048	X K
-1.600048	X L
-1.607545	X N
-1.571288	X NINE
-1.647108	X P
-1.600048	X R
-1.419054	X S
-1.664	X SEVENTY
-1.578302	X THREE
-1.372627	X TWO
-1.647108	X V
-1.622941	X W
-1.449496	X X
-1.419054	X Y
-1.607545	X Z
-1.476603	X ZERO
-0.5038637	Y </s>
-1.789162	Y A
-1.680875	Y B
-1.631704	Y D
-1.789162	Y E
-1.614065	Y EIGHT
-1.661612	Y F
-1.842905	Y G
-1.625881	Y H
-1.872496	Y J
-1.260303	Y L
-1.852546	Y M
-1.674359	Y N
-1.815203	Y O
-1.625472	Y ONE
-1.882825	Y P
-1.882825	Y Q
-1.824242	Y R
-1.756706	Y SEVEN
-1.815203	Y T
-2.016393	Y TEN
-1.79767	Y THREE
-1.687491	Y U
-1.707966	Y V
-1.687491	Y W
-1.824242	Y Y
-1.674359	Y Z
-0.04104453	YES </s>
-1.167778	Z </s>
-1.239148	Z A
-1.690214	Z C
-1.680788	Z D
-1.450571	Z E
-1.596321	Z EIGHT
-1.662529	Z F
-1.690214	Z G
-1.671563	Z H
-1.473096	Z I
-1.671563	Z K
-1.671563	Z L
-1.450571	Z NINE
-1.863559	Z NINETY
-1.467354	Z O
-1.515172	Z R
-1.604066	Z SEVEN
-1.636504	Z SIX
-1.50262	Z SIXTY
-1.662529	Z T
-1.65368	Z TWENTY
-1.588712	Z TWO
-1.699848	Z U
-1.699848	Z W
-1.555165	Z X
-1.515172	Z Y
-1.680788	Z Z
-0.3396499	ZERO </s>
-1.67689	ZERO EIGHT
-1.686914	ZERO FIVE
-1.493416	ZERO FOUR
-1.443829	ZERO ONE
-1.490181	ZERO SEVEN
-0.9259069	ZERO SIX
-1.483782	ZERO TWO
-1.78936	ZERO ZERO

\end\
